svm_type c_svc
kernel_type linear
nr_class 2
total_sv 154
rho -2.86493
label 1 0
nr_sv 84 70
SV
6.741798496273172 0:172 1:10 2:64 3:131 4:85 5:35 6:313 7:82 8:67 
4.509653408338766 0:4 1:44 2:55 3:121 4:22 5:98 6:185 7:50 8:30 
10.3105788159531 0:346 1:85 2:54 3:244 4:76 5:61 6:298 7:46 8:48 
0.9674079137383738 0:273 1:89 2:78 3:142 4:54 5:19 6:268 7:26 8:5 
0.6565879015093664 0:351 1:3 2:38 3:115 4:39 5:92 6:145 7:82 8:69 
20 0:41 1:80 2:73 3:23 4:65 5:94 6:228 7:69 8:94 
6.735786297225875 0:61 1:16 2:42 3:80 4:21 5:32 6:158 7:38 8:96 
20 0:128 1:89 2:96 3:328 4:99 5:2 6:277 7:18 8:97 
20 0:22 1:4 2:64 3:104 4:29 5:94 6:10 7:95 8:8 
20 0:161 1:8 2:57 3:102 4:87 5:23 6:18 7:69 8:97 
4.470440049738664 0:64 1:95 2:39 3:11 4:9 5:49 6:340 7:52 8:20 
20 0:232 1:76 2:83 3:30 4:21 5:2 6:310 7:1 8:31 
20 0:176 1:79 2:74 3:42 4:48 5:90 6:267 7:0 8:64 
3.806176250354984 0:18 1:95 2:35 3:177 4:83 5:59 6:240 7:21 8:96 
14.57423146228042 0:11 1:87 2:19 3:81 4:89 5:3 6:346 7:12 8:84 
20 0:45 1:93 2:74 3:231 4:91 5:23 6:37 7:15 8:17 
20 0:87 1:49 2:87 3:68 4:81 5:12 6:4 7:40 8:68 
20 0:143 1:8 2:51 3:166 4:28 5:71 6:317 7:31 8:75 
20 0:353 1:71 2:82 3:2 4:9 5:28 6:226 7:80 8:99 
0.1827082038917116 0:208 1:50 2:50 3:43 4:44 5:77 6:87 7:29 8:25 
20 0:21 1:65 2:68 3:209 4:77 5:10 6:234 7:27 8:76 
20 0:88 1:81 2:64 3:322 4:37 5:54 6:160 7:17 8:70 
0.6968185500813212 0:187 1:50 2:41 3:24 4:62 5:91 6:29 7:38 8:17 
20 0:285 1:29 2:59 3:83 4:89 5:16 6:14 7:7 8:51 
0.2425396482323882 0:73 1:59 2:75 3:149 4:49 5:62 6:83 7:84 8:50 
20 0:203 1:3 2:96 3:101 4:93 5:77 6:138 7:64 8:97 
20 0:92 1:92 2:59 3:39 4:63 5:90 6:121 7:3 8:41 
20 0:191 1:35 2:97 3:243 4:25 5:6 6:115 7:36 8:40 
2.969451762174109 0:26 1:93 2:4 3:63 4:95 5:85 6:129 7:2 8:85 
20 0:320 1:33 2:63 3:211 4:32 5:16 6:10 7:42 8:93 
8.104333940368623 0:264 1:13 2:21 3:2 4:91 5:36 6:354 7:80 8:49 
0.5132446157813231 0:90 1:97 2:59 3:74 4:66 5:70 6:176 7:14 8:25 
10.19890675989089 0:139 1:83 2:78 3:142 4:73 5:14 6:295 7:29 8:46 
20 0:223 1:61 2:65 3:307 4:43 5:73 6:215 7:1 8:28 
3.164186314808398e-05 0:257 1:38 2:36 3:10 4:42 5:10 6:262 7:57 8:71 
2.829934271902255 0:190 1:23 2:48 3:311 4:59 5:95 6:122 7:5 8:24 
1.678449089169557 0:317 1:92 2:23 3:2 4:34 5:35 6:87 7:9 8:77 
20 0:272 1:4 2:83 3:351 4:96 5:11 6:194 7:32 8:88 
20 0:12 1:99 2:58 3:298 4:66 5:92 6:302 7:12 8:92 
20 0:5 1:79 2:69 3:205 4:97 5:40 6:224 7:57 8:74 
19.02107137878825 0:18 1:54 2:92 3:227 4:33 5:5 6:301 7:91 8:23 
4.882915383139439 0:239 1:94 2:43 3:5 4:93 5:87 6:95 7:79 8:70 
7.703004812164264 0:62 1:14 2:84 3:157 4:1 5:7 6:90 7:46 8:21 
2.164055426823156 0:354 1:53 2:73 3:143 4:0 5:33 6:239 7:84 8:31 
20 0:9 1:52 2:80 3:276 4:96 5:41 6:262 7:9 8:74 
17.70360458710313 0:352 1:45 2:13 3:359 4:86 5:99 6:78 7:17 8:57 
20 0:52 1:78 2:99 3:229 4:6 5:97 6:193 7:77 8:7 
20 0:116 1:7 2:97 3:331 4:31 5:42 6:312 7:21 8:37 
20 0:98 1:78 2:84 3:155 4:93 5:93 6:150 7:19 8:2 
19.97837837470562 0:218 1:73 2:76 3:341 4:23 5:72 6:356 7:94 8:11 
20 0:65 1:17 2:70 3:137 4:62 5:63 6:308 7:77 8:39 
3.791092757641765 0:258 1:47 2:60 3:52 4:9 5:0 6:326 7:23 8:8 
11.82645197970403 0:260 1:34 2:66 3:119 4:87 5:97 6:28 7:85 8:46 
20 0:159 1:2 2:98 3:353 4:11 5:98 6:186 7:84 8:64 
20 0:271 1:97 2:76 3:143 4:87 5:10 6:161 7:23 8:73 
2.451993965999823 0:100 1:56 2:59 3:155 4:22 5:47 6:96 7:1 8:45 
20 0:115 1:62 2:34 3:315 4:35 5:99 6:270 7:11 8:97 
20 0:334 1:29 2:88 3:190 4:29 5:60 6:57 7:51 8:13 
20 0:319 1:34 2:99 3:213 4:65 5:97 6:204 7:57 8:35 
20 0:158 1:33 2:74 3:54 4:79 5:67 6:351 7:28 8:81 
20 0:6 1:1 2:46 3:38 4:57 5:12 6:272 7:58 8:67 
9.803829807969278 0:183 1:82 2:35 3:83 4:49 5:90 6:249 7:29 8:92 
20 0:156 1:20 2:67 3:315 4:95 5:30 6:121 7:38 8:59 
16.60756497306931 0:145 1:17 2:71 3:213 4:92 5:39 6:354 7:64 8:28 
20 0:216 1:45 2:75 3:208 4:94 5:67 6:299 7:55 8:72 
4.040801402172404 0:10 1:26 2:36 3:253 4:5 5:87 6:65 7:36 8:32 
2.251501683069973 0:135 1:63 2:63 3:239 4:79 5:95 6:249 7:42 8:44 
11.82316172094527 0:68 1:2 2:24 3:307 4:94 5:44 6:60 7:6 8:66 
20 0:72 1:58 2:88 3:70 4:26 5:60 6:53 7:49 8:41 
20 0:184 1:98 2:78 3:311 4:86 5:52 6:6 7:11 8:97 
20 0:336 1:56 2:87 3:9 4:30 5:83 6:67 7:91 8:45 
20 0:157 1:92 2:90 3:301 4:54 5:99 6:135 7:22 8:4 
20 0:50 1:26 2:67 3:310 4:28 5:76 6:322 7:41 8:3 
6.380696167194137 0:50 1:25 2:68 3:157 4:37 5:78 6:185 7:45 8:22 
20 0:344 1:73 2:66 3:234 4:66 5:71 6:285 7:40 8:55 
20 0:155 1:23 2:58 3:148 4:86 5:76 6:317 7:75 8:85 
20 0:20 1:89 2:86 3:207 4:88 5:45 6:329 7:38 8:61 
16.98819702526545 0:106 1:63 2:55 3:30 4:50 5:66 6:260 7:8 8:4 
3.121607920015868 0:252 1:91 2:78 3:200 4:83 5:37 6:322 7:63 8:33 
20 0:96 1:66 2:84 3:275 4:79 5:39 6:308 7:69 8:46 
20 0:325 1:22 2:42 3:60 4:81 5:60 6:210 7:31 8:75 
20 0:36 1:88 2:81 3:77 4:27 5:81 6:341 7:22 8:97 
20 0:330 1:32 2:93 3:324 4:13 5:85 6:135 7:1 8:43 
20 0:359 1:91 2:30 3:22 4:44 5:64 6:325 7:42 8:72 
-20 0:296 1:65 2:19 3:68 4:87 5:44 6:237 7:66 8:26 
-20 0:76 1:54 2:70 3:188 4:32 5:36 6:120 7:81 8:22 
-8.999568823439075 0:19 1:71 2:95 3:17 4:39 5:1 6:80 7:36 8:59 
-20 0:158 1:34 2:70 3:98 4:33 5:35 6:312 7:5 8:84 
-2.308926582536242 0:255 1:46 2:58 3:331 4:73 5:92 6:357 7:15 8:79 
-20 0:171 1:23 2:52 3:116 4:19 5:83 6:343 7:20 8:84 
-20 0:140 1:71 2:84 3:99 4:91 5:85 6:99 7:59 8:7 
-13.75877970973455 0:49 1:23 2:90 3:306 4:39 5:76 6:273 7:16 8:65 
-20 0:17 1:57 2:83 3:274 4:85 5:22 6:210 7:30 8:59 
-16.42523391951382 0:92 1:4 2:97 3:306 4:27 5:72 6:57 7:82 8:56 
-9.120131353265217 0:169 1:54 2:74 3:89 4:79 5:92 6:267 7:5 8:82 
-20 0:274 1:11 2:90 3:147 4:12 5:69 6:324 7:87 8:56 
-2.667176670793732 0:283 1:33 2:96 3:281 4:78 5:82 6:165 7:21 8:83 
-20 0:54 1:89 2:80 3:96 4:9 5:20 6:277 7:11 8:9 
-20 0:333 1:93 2:78 3:317 4:2 5:26 6:296 7:88 8:3 
-12.40568021673679 0:191 1:72 2:99 3:280 4:22 5:42 6:297 7:1 8:62 
-20 0:291 1:92 2:74 3:156 4:93 5:14 6:233 7:19 8:94 
-20 0:211 1:81 2:90 3:238 4:16 5:59 6:164 7:3 8:71 
-20 0:123 1:91 2:23 3:63 4:13 5:21 6:278 7:56 8:14 
-20 0:244 1:88 2:83 3:102 4:56 5:87 6:22 7:28 8:61 
-20 0:64 1:69 2:72 3:88 4:95 5:56 6:251 7:72 8:76 
-10.78086687660998 0:246 1:60 2:83 3:72 4:67 5:98 6:227 7:74 8:93 
-20 0:139 1:53 2:87 3:204 4:26 5:7 6:22 7:30 8:34 
-20 0:208 1:61 2:82 3:157 4:80 5:40 6:201 7:21 8:39 
-20 0:279 1:52 2:82 3:351 4:39 5:51 6:166 7:68 8:33 
-20 0:99 1:36 2:76 3:72 4:65 5:7 6:211 7:90 8:48 
-20 0:218 1:39 2:73 3:75 4:81 5:95 6:284 7:38 8:27 
-20 0:356 1:41 2:42 3:324 4:23 5:5 6:7 7:66 8:56 
-14.39038569639238 0:110 1:49 2:89 3:325 4:50 5:35 6:148 7:2 8:81 
-20 0:146 1:27 2:66 3:287 4:91 5:99 6:231 7:22 8:40 
-20 0:145 1:84 2:14 3:137 4:38 5:87 6:137 7:48 8:10 
-20 0:61 1:68 2:92 3:236 4:96 5:73 6:331 7:93 8:28 
-20 0:39 1:92 2:80 3:166 4:97 5:75 6:236 7:51 8:93 
-1.074009937232427 0:99 1:6 2:83 3:3 4:61 5:47 6:195 7:28 8:72 
-20 0:225 1:95 2:59 3:47 4:94 5:70 6:47 7:53 8:89 
-20 0:85 1:57 2:96 3:214 4:71 5:38 6:280 7:24 8:84 
-20 0:57 1:19 2:62 3:200 4:55 5:95 6:288 7:27 8:39 
-20 0:7 1:51 2:91 3:151 4:80 5:7 6:359 7:84 8:77 
-20 0:75 1:55 2:73 3:232 4:42 5:34 6:92 7:77 8:59 
-20 0:133 1:96 2:32 3:358 4:65 5:94 6:300 7:28 8:23 
-20 0:217 1:31 2:55 3:47 4:98 5:79 6:302 7:37 8:76 
-1.297096460576547 0:267 1:20 2:65 3:76 4:69 5:91 6:356 7:32 8:57 
-20 0:237 1:86 2:97 3:91 4:91 5:43 6:255 7:11 8:26 
-20 0:200 1:6 2:42 3:337 4:44 5:68 6:145 7:30 8:83 
-13.37018426528648 0:91 1:41 2:87 3:164 4:24 5:96 6:265 7:9 8:35 
-20 0:35 1:72 2:68 3:170 4:40 5:77 6:210 7:10 8:41 
-20 0:200 1:75 2:54 3:199 4:70 5:40 6:208 7:5 8:78 
-20 0:131 1:53 2:66 3:16 4:90 5:88 6:263 7:43 8:59 
-19.4016027968534 0:106 1:8 2:75 3:332 4:11 5:57 6:322 7:10 8:80 
-20 0:119 1:14 2:42 3:347 4:96 5:83 6:324 7:14 8:38 
-20 0:21 1:44 2:56 3:153 4:59 5:63 6:106 7:70 8:57 
-20 0:163 1:41 2:47 3:160 4:90 5:84 6:85 7:1 8:77 
-20 0:348 1:0 2:69 3:330 4:82 5:57 6:174 7:34 8:82 
-20 0:356 1:77 2:93 3:73 4:17 5:69 6:299 7:63 8:16 
-7.931730576775334 0:109 1:24 2:85 3:142 4:25 5:55 6:1 7:6 8:80 
-20 0:155 1:66 2:93 3:292 4:66 5:34 6:141 7:36 8:91 
-20 0:193 1:45 2:48 3:122 4:24 5:63 6:135 7:1 8:18 
-2.195246402430609 0:20 1:10 2:74 3:121 4:90 5:94 6:173 7:27 8:67 
-20 0:334 1:6 2:72 3:155 4:62 5:43 6:223 7:5 8:36 
-20 0:262 1:66 2:91 3:115 4:59 5:5 6:205 7:97 8:91 
-20 0:146 1:71 2:47 3:118 4:33 5:89 6:261 7:5 8:72 
-16.73721193189522 0:143 1:41 2:79 3:248 4:93 5:61 6:270 7:12 8:96 
-6.350839629478727 0:4 1:68 2:97 3:208 4:61 5:72 6:64 7:94 8:85 
-12.19400074910649 0:39 1:7 2:93 3:160 4:87 5:2 6:170 7:21 8:64 
-20 0:198 1:8 2:65 3:7 4:97 5:22 6:19 7:96 8:54 
-20 0:4 1:96 2:68 3:276 4:48 5:31 6:119 7:66 8:93 
-20 0:267 1:11 2:41 3:85 4:99 5:90 6:94 7:82 8:37 
-9.32033584588387 0:11 1:51 2:77 3:291 4:42 5:61 6:206 7:22 8:89 
-20 0:143 1:74 2:78 3:318 4:81 5:53 6:141 7:11 8:98 
-20 0:61 1:17 2:54 3:149 4:74 5:67 6:274 7:29 8:40 
