svm_type c_svc
kernel_type linear
nr_class 2
total_sv 21
rho -0.861077
label 0 1
nr_sv 12 9
SV
20 0:0.2 1:0.25 2:0.89690501 3:0.2 4:0.023483769 5:0.10380867 6:0.69476624 
3.681390117525341 0:0.4 1:0.5 2:0.67118339 3:0.6 4:0.063633797 5:0.0928862 6:0.70217747 
6.875702492161553 0:0.8 1:0.25 2:0.96361429 3:0.4 4:0.63573339 5:0.0049025281 6:0.74891447 
20 0:0.4 1:0.5 2:0.94699617 3:0.3 4:0.0242412 5:0.036699579 6:0.82583503 
11.21936529252644 0:0.8 1:0 2:0.52168026 3:0.3 4:0.58642476 5:0.054918706 6:0.37854469 
20 0:0.6 1:0.25 2:0.95 3:0.1 4:0.3225 5:0.046666667 6:0.6 
20 0:0.6 1:0.25 2:0.93509971 3:0.2 4:0.069431194 5:0.20513518 6:0.95786724 
2.68486834498295 0:0.8 1:0 2:0.35693376 3:0.3 4:0.26925435 5:0.72153096 6:0.99026227 
20 0:0.8 1:0.5 2:0.22031709 3:0.6 4:0.20784537 5:0.038492308 6:0.77855889 
13.21712399778134 0:0.8 1:0.25 2:0.929173 3:0.6 4:0.14560547 5:0.10395241 6:0.17957782 
20 0:0.8 1:0.25 2:0.62649444 3:0.3 4:0.68633214 5:0.0029677564 6:0.98192593 
2.915040594308999 0:0.6 1:0 2:0.8420637 3:0.1 4:0.2122686 5:0.23120898 6:0.18226033 
-20 0:0.6 1:0.25 2:0.96511526 3:0.1 4:0.32285999 5:0.05328475 6:0.61073347 
-20 0:1 1:0.25 2:0.95 3:0.1 4:0.35 5:0 6:0.6 
-20 0:0.2 1:0.5 2:0.55425768 3:0.1 4:0.087698945 5:0.03963259 6:0.70281572 
-0.5934908392866182 0:1.2 1:0.25 2:0.95 3:0.1 4:0.35 5:0 6:0.6 
-20 0:0.4 1:0.25 2:0.36443506 3:0.1 4:0.061336967 5:0.0082078875 6:0.68082978 
-20 0:0.6 1:0.25 2:0.94988464 3:0.7 4:0.47907173 5:0.3451217 6:0.93660851 
-20 0:0.6 1:0.25 2:0.95 3:0.1 4:0.3225 5:0 6:0.6 
-20 0:0.8 1:0.25 2:0.64592697 3:0.5 4:0.16323475 5:0.048556143 6:0.89686802 
-20 0:0.8 1:0.25 2:0.68570494 3:0.8 4:0.093197089 5:0.020682489 6:0.76264205 
