svm_type c_svc
kernel_type linear
nr_class 2
total_sv 19
rho 1.28797
label 1 0
nr_sv 8 11
SV
20 0:0.2 1:0 2:1 3:1 4:0.25 5:0.66666667 6:0.66666667 
20 0:0.6 1:0.75 2:0.89578829 3:0.2 4:0.41329371 5:0.40840564 6:0.71901969 
20 0:0.6 1:0.25 2:0.95 3:0.1 4:0.35 5:0 6:0.6 
20 0:0.8 1:0.25 2:0.95 3:0.1 4:0.35 5:0 6:0.6 
6.826534261864474 0:4 1:0.25 2:0.95 3:0.1 4:0.35 5:0 6:0.6 
20 0:0.4 1:0.5 2:0.73758963 3:0.2 4:0.27359782 5:0.166451 6:0.58072882 
20 0:0.6 1:0.25 2:0.96511526 3:0.1 4:0.32285999 5:0.05328475 6:0.61073347 
20 0:0.8 1:0.5 2:0.038555134 3:0.1 4:0.25626236 5:0.015680824 6:0.41638624 
-7.898139729758022 0:0.8 1:0 2:0.96636536 3:0.2 4:0.78081532 5:0.4276517 6:0.43359746 
-3.053360558611199 0:0.8 1:0.75 2:0.8922313 3:0 4:0.96413423 5:0.06362256 6:0.14688785 
-11.07480823505647 0:0.8 1:0.75 2:0.11517017 3:0 4:0.16773408 5:0.56878978 6:0.1483777 
-13.67383791082788 0:0.6 1:0.5 2:0.87422511 3:0.2 4:0.039701038 5:0.11375605 6:0.57331647 
-20 0:0.8 1:0.25 2:0.80965234 3:0.4 4:0.42083778 5:0.071042345 6:0.24567774 
-20 0:0.6 1:0.25 2:0.93509971 3:0.2 4:0.069431194 5:0.20513518 6:0.95786724 
-13.62210838643339 0:0.8 1:0 2:0.55940219 3:0.5 4:0.27956195 5:0.091164359 6:0.28522696 
-6.357962969629019 0:0.8 1:0.25 2:0.96361429 3:0.4 4:0.63573339 5:0.0049025281 6:0.74891447 
-11.14631647154848 0:0.8 1:0.25 2:0.62649444 3:0.3 4:0.68633214 5:0.0029677564 6:0.98192593 
-20 0:0.8 1:0.75 2:0.94663932 3:0.3 4:0.18067056 5:0.35825271 6:0.94663261 
-20 0:0.6 1:0.25 2:0.95 3:0.1 4:0.3225 5:0.046666667 6:0.6 
